{"learner":{"attributes":{},"feature_names":["lag_1","lag_3","lag_6","lag_12","m_1","m_2","m_3","m_4","m_5","m_6","m_7","m_8","m_9","m_10","m_11","m_12"],"feature_types":["float","float","float","float","i","i","i","i","i","i","i","i","i","i","i","i"],"gradient_booster":{"model":{"gbtree_model_param":{"num_parallel_tree":"1","num_trees":"6"},"iteration_indptr":[0,1,2,3,4,5,6],"tree_info":[0,0,0,0,0,0],"trees":[{"base_weights":[5.9345967E-1,3.3870163E0,-2.3121382E1,9.340628E0,-5.0043263E0,-1.524775E1,-1.0383135E2,-3.1877115E1,1.31459E1,-1.0564543E2,-3.0325787E0,-4.410555E1,6.0292726E0,-1.1406701E2,1.0890217E2,5.3588524E1,-4.09554E1,5.600845E0,2.8058735E1,-1.3211197E2,2.0130232E-1,-6.1748857E0,3.468797E1,2.0272617E1,-7.969899E1,-3.483197E0,6.3605972E1,1.7040145E-1,-1.2038604E2,1.0901929E1,2.0140146E-1,4.1250084E-3,1.9601369E-1,-7.883579E-2,-8.621418E-3,8.495239E-3,-3.1837985E-2,6.5908566E-2,2.2159506E-2,-1.5807268E-1,1.0190242E-1,1.4668959E-3,-2.1535834E-2,4.35811E-2,-3.3126842E-2,-8.592884E-2,4.0051382E-2,-6.1179414E-2,-2.3082767E-1,1.9284327E-2,-7.105428E-2,1.5223609E-1,1.9857373E-2,-1.08297154E-1,-2.9879785E-1,9.5901445E-2,-7.949855E-2],"categories":[],"categories_nodes":[],"categories_segments":[],"categories_sizes":[],"default_left":[0,0,0,0,0,0,0,0,0,0,0,0,0,0,0,0,0,0,0,0,0,0,0,0,0,0,0,0,0,0,0,0,0,0,0,0,0,0,0,0,0,0,0,0,0,0,0,0,0,0,0,0,0,0,0,0,0],"id":0,"left_children":[1,3,5,7,9,11,13,15,17,19,21,23,25,27,29,31,33,35,37,39,-1,41,43,45,47,49,51,-1,53,55,-1,-1,-1,-1,-1,-1,-1,-1,-1,-1,-1,-1,-1,-1,-1,-1,-1,-1,-1,-1,-1,-1,-1,-1,-1,-1,-1],"loss_changes":[5.3874494E5,3.634974E5,5.430116E5,6.679484E5,5.989541E5,4.8042403E5,1.7791019E5,2.8151072E5,4.383228E5,4.9777056E5,3.5141438E5,7.623798E5,2.4723872E5,1.5173112E5,3.404291E4,2.4574117E5,3.9860406E5,2.8081916E5,2.908105E5,3.4417312E5,0E0,3.2119897E5,1.3894834E5,2.5340044E5,5.848005E5,5.9828475E5,2.4511619E5,0E0,1.2288994E5,3.0677658E4,0E0,0E0,0E0,0E0,0E0,0E0,0E0,0E0,0E0,0E0,0E0,0E0,0E0,0E0,0E0,0E0,0E0,0E0,0E0,0E0,0E0,0E0,0E0,0E0,0E0,0E0,0E0],"parents":[2147483647,0,0,1,1,2,2,3,3,4,4,5,5,6,6,7,7,8,8,9,9,10,10,11,11,12,12,13,13,14,14,15,15,16,16,17,17,18,18,19,19,21,21,22,22,23,23,24,24,25,25,26,26,28,28,29,29],"right_children":[2,4,6,8,10,12,14,16,18,20,22,24,26,28,30,32,34,36,38,40,-1,42,44,46,48,50,52,-1,54,56,-1,-1,-1,-1,-1,-1,-1,-1,-1,-1,-1,-1,-1,-1,-1,-1,-1,-1,-1,-1,-1,-1,-1,-1,-1,-1,-1],"split_conditions":[9.07E2,6.29E2,1E0,1.61E2,6.35E2,4.72E2,9.89E2,1.55E2,4.48E2,8.7E2,8.36E2,2.41E2,9.86E2,1.09E2,9.38E2,1.39E2,5.64E2,8.6E2,4.73E2,1E0,2.0130232E-1,7.04E2,9.61E2,2.35E2,8.96E2,9.66E2,6.11E2,1.7040145E-1,9.69E2,9.28E2,2.0140146E-1,4.1250084E-3,1.9601369E-1,-7.883579E-2,-8.621418E-3,8.495239E-3,-3.1837985E-2,6.5908566E-2,2.2159506E-2,-1.5807268E-1,1.0190242E-1,1.4668959E-3,-2.1535834E-2,4.35811E-2,-3.3126842E-2,-8.592884E-2,4.0051382E-2,-6.1179414E-2,-2.3082767E-1,1.9284327E-2,-7.105428E-2,1.5223609E-1,1.9857373E-2,-1.08297154E-1,-2.9879785E-1,9.5901445E-2,-7.949855E-2],"split_indices":[2,0,15,2,0,3,0,3,0,3,2,3,2,3,2,3,3,2,0,5,0,3,0,0,0,2,3,0,0,2,0,0,0,0,0,0,0,0,0,0,0,0,0,0,0,0,0,0,0,0,0,0,0,0,0,0,0],"split_type":[0,0,0,0,0,0,0,0,0,0,0,0,0,0,0,0,0,0,0,0,0,0,0,0,0,0,0,0,0,0,0,0,0,0,0,0,0,0,0,0,0,0,0,0,0,0,0,0,0,0,0,0,0,0,0,0,0],"sum_hessian":[8.13E3,7.274E3,8.56E2,4.255E3,3.019E3,7.81E2,7.5E1,3.59E2,3.896E3,5.7E1,2.962E3,3.31E2,4.5E2,7.2E1,3E0,3.4E1,3.25E2,2.588E3,1.308E3,5.3E1,4E0,2.735E3,2.27E2,1.18E2,2.13E2,3.87E2,6.3E1,1E0,7.1E1,2E0,1E0,2.6E1,8E0,1.49E2,1.76E2,2.403E3,1.85E2,1.75E2,1.133E3,4.8E1,5E0,1.827E3,9.08E2,2.01E2,2.6E1,1.8E1,1E2,1.91E2,2.2E1,2.9E2,9.7E1,2E1,4.3E1,6.8E1,3E0,1E0,1E0],"tree_param":{"num_deleted":"0","num_feature":"16","num_nodes":"57","size_leaf_vector":"1"}},{"base_weights":[4.6148762E-1,-3.5009494E0,2.6109856E1,-4.4862923E-1,-3.667541E1,3.6998215E1,-4.461891E1,2.324106E1,-2.5583088E0,-4.242583E0,-6.920282E1,3.9898724E1,-6.3200443E1,-5.7494E1,7.164981E1,3.796913E1,-5.9893604E1,-8.75808E1,-1.6612085E0,-1.6224254E2,3.5061653E0,-8.199942E1,7.330012E1,3.5262768E1,8.4445496E1,2.337557E2,-1.4132028E2,2.2558683E-1,-6.3585144E1,1.19523026E2,-1.5965071E2,4.2164434E-2,-1.9907935E-1,-8.164549E-2,1.20765164E-1,1.03754655E-1,-1.0993558E-1,-4.135525E-2,-2.7768497E-4,-2.080131E-1,7.4887164E-2,-3.3885412E-2,2.9971592E-2,-1.8299823E-1,-6.336128E-2,2.609135E-1,1.3346112E-2,4.8306633E-2,1.6596397E-2,-7.683033E-2,1.1687317E-1,2.7910462E-1,3.4555849E-3,-1.8093088E-1,-5.5201985E-3,-4.0260103E-2,-1.5107106E-1,1.0784909E-2,2.1117215E-1,-2.6963033E-2,-2.1246304E-1],"categories":[],"categories_nodes":[],"categories_segments":[],"categories_sizes":[],"default_left":[0,0,0,0,0,0,0,0,0,0,0,0,0,0,0,0,0,0,0,0,0,0,0,0,0,0,0,0,0,0,0,0,0,0,0,0,0,0,0,0,0,0,0,0,0,0,0,0,0,0,0,0,0,0,0,0,0,0,0,0,0],"id":1,"left_children":[1,3,5,7,9,11,13,15,17,19,21,23,25,27,29,31,33,35,37,39,41,43,45,47,49,51,53,-1,55,57,59,-1,-1,-1,-1,-1,-1,-1,-1,-1,-1,-1,-1,-1,-1,-1,-1,-1,-1,-1,-1,-1,-1,-1,-1,-1,-1,-1,-1,-1,-1],"loss_changes":[8.285818E5,7.150715E5,8.418512E5,3.2331288E5,6.273979E5,2.7745225E5,2.2267569E5,6.4998656E5,4.529114E5,3.6665103E5,5.476066E5,1.8700575E5,6.5937575E5,2.4193344E5,1.851744E5,4.5589888E5,3.242294E5,2.7659706E5,3.2284512E5,1.6754062E5,2.8403625E5,5.0228375E5,2.7769475E5,2.02499E5,4.58746E5,6.1670438E4,1.1732328E5,0E0,2.5917838E5,1.2725509E5,1.5270039E4,0E0,0E0,0E0,0E0,0E0,0E0,0E0,0E0,0E0,0E0,0E0,0E0,0E0,0E0,0E0,0E0,0E0,0E0,0E0,0E0,0E0,0E0,0E0,0E0,0E0,0E0,0E0,0E0,0E0,0E0],"parents":[2147483647,0,0,1,1,2,2,3,3,4,4,5,5,6,6,7,7,8,8,9,9,10,10,11,11,12,12,13,13,14,14,15,15,16,16,17,17,18,18,19,19,20,20,21,21,22,22,23,23,24,24,25,25,26,26,28,28,29,29,30,30],"right_children":[2,4,6,8,10,12,14,16,18,20,22,24,26,28,30,32,34,36,38,40,42,44,46,48,50,52,54,-1,56,58,60,-1,-1,-1,-1,-1,-1,-1,-1,-1,-1,-1,-1,-1,-1,-1,-1,-1,-1,-1,-1,-1,-1,-1,-1,-1,-1,-1,-1,-1,-1],"split_conditions":[8.82E2,8.15E2,8.89E2,1.7E2,5.75E2,9.72E2,8.91E2,8.83E2,1.06E2,8.19E2,1E0,1E0,2.1E2,1.13E2,6.06E2,9.79E2,9.93E2,1.64E2,1.99E2,5.23E2,2.82E2,6.38E2,2.09E2,5.71E2,9.06E2,1E0,7.15E2,2.2558683E-1,9.83E2,9.38E2,9.54E2,4.2164434E-2,-1.9907935E-1,-8.164549E-2,1.20765164E-1,1.03754655E-1,-1.0993558E-1,-4.135525E-2,-2.7768497E-4,-2.080131E-1,7.4887164E-2,-3.3885412E-2,2.9971592E-2,-1.8299823E-1,-6.336128E-2,2.609135E-1,1.3346112E-2,4.8306633E-2,1.6596397E-2,-7.683033E-2,1.1687317E-1,2.7910462E-1,3.4555849E-3,-1.8093088E-1,-5.5201985E-3,-4.0260103E-2,-1.5107106E-1,1.0784909E-2,2.1117215E-1,-2.6963033E-2,-2.1246304E-1],"split_indices":[3,3,0,0,0,2,2,2,3,3,9,6,0,1,1,1,2,2,0,0,0,0,1,0,3,15,1,0,3,3,0,0,0,0,0,0,0,0,0,0,0,0,0,0,0,0,0,0,0,0,0,0,0,0,0,0,0,0,0,0,0],"split_type":[0,0,0,0,0,0,0,0,0,0,0,0,0,0,0,0,0,0,0,0,0,0,0,0,0,0,0,0,0,0,0,0,0,0,0,0,0,0,0,0,0,0,0,0,0,0,0,0,0,0,0,0,0,0,0,0,0,0,0,0,0],"sum_hessian":[8.151E3,7.061E3,1.09E3,6.467E3,5.94E2,9.45E2,1.45E2,5.28E2,5.939E3,2.98E2,2.96E2,9.19E2,2.6E1,1.31E2,1.4E1,4.49E2,7.9E1,6.1E1,5.878E3,1.3E1,2.85E2,2.72E2,2.4E1,8.34E2,8.5E1,5E0,2.1E1,2E0,1.29E2,1.2E1,2E0,4.42E2,7E0,7.1E1,8E0,6E0,5.5E1,1.97E2,5.681E3,1.1E1,2E0,1.18E2,1.67E2,4.1E1,2.31E2,5E0,1.9E1,4.9E2,3.44E2,1.4E1,7.1E1,4E0,1E0,1.6E1,5E0,1.03E2,2.6E1,6E0,6E0,1E0,1E0],"tree_param":{"num_deleted":"0","num_feature":"16","num_nodes":"61","size_leaf_vector":"1"}},{"base_weights":[7.1062386E-1,2.7980728E0,-2.0639269E1,1.0631666E0,2.0633787E1,-9.707324E-1,-4.3572758E1,-3.0023541E0,6.188394E0,-1.3975142E2,2.2850195E1,-1.0735764E1,1.5403392E2,-1.001334E2,-3.2184643E1,2.58241E0,-2.5825071E1,3.811475E1,3.1870694E0,-5.365132E1,-2.9403454E-1,1.7356151E-1,2.1155336E1,-6.9795055E0,-1.5853003E-1,9.344938E1,1.8010905E2,-6.3255573E1,-1.7241809E-1,6.378723E1,-4.238048E1,-5.132962E-4,6.6699386E-2,-3.4466647E-2,3.8736116E-2,2.0654973E-2,7.652875E-2,6.681037E-3,-1.6778687E-2,-1.1555046E-1,2.1635646E-2,-2.590017E-2,2.6374355E-2,-1.1733551E-2,1.1032556E-1,1.32465E-1,-2.8703526E-2,2.153514E-1,6.6534095E-2,-9.368327E-2,-4.159845E-2,1.3030837E-1,4.654841E-2,-4.4921596E-2,1.826252E-1],"categories":[],"categories_nodes":[],"categories_segments":[],"categories_sizes":[],"default_left":[0,0,0,0,0,0,0,0,0,0,0,0,0,0,0,0,0,0,0,0,0,0,0,0,0,0,0,0,0,0,0,0,0,0,0,0,0,0,0,0,0,0,0,0,0,0,0,0,0,0,0,0,0,0,0],"id":2,"left_children":[1,3,5,7,9,11,13,15,17,19,21,23,25,27,29,31,33,35,37,39,-1,-1,41,43,-1,45,47,49,-1,51,53,-1,-1,-1,-1,-1,-1,-1,-1,-1,-1,-1,-1,-1,-1,-1,-1,-1,-1,-1,-1,-1,-1,-1,-1],"loss_changes":[3.5877422E5,2.2688305E5,3.2336912E5,1.3929153E5,2.3424294E5,5.874123E5,2.0996744E5,4.7523797E5,2.832182E5,1.03744016E5,1.6029753E5,2.0150794E5,1.9475812E4,1.3568362E5,2.7374956E5,5.9470875E5,4.102828E5,1.6876731E5,1.8874133E5,3.5130785E4,0E0,0E0,1.5687428E5,2.003741E5,0E0,4.6705438E4,4.5683344E4,2.11305E4,0E0,2.4878812E4,1.517029E5,0E0,0E0,0E0,0E0,0E0,0E0,0E0,0E0,0E0,0E0,0E0,0E0,0E0,0E0,0E0,0E0,0E0,0E0,0E0,0E0,0E0,0E0,0E0,0E0],"parents":[2147483647,0,0,1,1,2,2,3,3,4,4,5,5,6,6,7,7,8,8,9,9,10,10,11,11,12,12,13,13,14,14,15,15,16,16,17,17,18,18,19,19,22,22,23,23,25,25,26,26,27,27,29,29,30,30],"right_children":[2,4,6,8,10,12,14,16,18,20,22,24,26,28,30,32,34,36,38,40,-1,-1,42,44,-1,46,48,50,-1,52,54,-1,-1,-1,-1,-1,-1,-1,-1,-1,-1,-1,-1,-1,-1,-1,-1,-1,-1,-1,-1,-1,-1,-1,-1],"split_conditions":[1E0,1E0,5.73E2,6.02E2,1.13E2,5.54E2,6.34E2,5.03E2,6.37E2,1.09E2,1.19E2,5.44E2,5.61E2,6.16E2,6.65E2,4.86E2,1E0,6.27E2,9.5E2,1.03E2,-2.9403454E-1,1.7356151E-1,1.91E2,5.32E2,-1.5853003E-1,5.58E2,5.69E2,5.92E2,-1.7241809E-1,6.39E2,9.96E2,-5.132962E-4,6.6699386E-2,-3.4466647E-2,3.8736116E-2,2.0654973E-2,7.652875E-2,6.681037E-3,-1.6778687E-2,-1.1555046E-1,2.1635646E-2,-2.590017E-2,2.6374355E-2,-1.1733551E-2,1.1032556E-1,1.32465E-1,-2.8703526E-2,2.153514E-1,6.6534095E-2,-9.368327E-2,-4.159845E-2,1.3030837E-1,4.654841E-2,-4.4921596E-2,1.826252E-1],"split_indices":[8,9,1,1,1,1,1,1,1,1,1,1,1,1,1,1,6,1,1,1,0,0,1,1,0,1,1,1,0,1,1,0,0,0,0,0,0,0,0,0,0,0,0,0,0,0,0,0,0,0,0,0,0,0,0],"split_type":[0,0,0,0,0,0,0,0,0,0,0,0,0,0,0,0,0,0,0,0,0,0,0,0,0,0,0,0,0,0,0,0,0,0,0,0,0,0,0,0,0,0,0,0,0,0,0,0,0,0,0,0,0,0,0],"sum_hessian":[8.048E3,7.332E3,7.16E2,6.683E3,6.49E2,3.86E2,3.3E2,3.727E3,2.956E3,8E0,6.41E2,3.64E2,2.2E1,5.4E1,2.76E2,2.995E3,7.32E2,2.53E2,2.703E3,6E0,2E0,6E0,6.35E2,3.56E2,8E0,8E0,1.4E1,3.7E1,1.7E1,2.6E1,2.5E2,2.858E3,1.37E2,6.46E2,8.6E1,1.75E2,7.8E1,2.301E3,4.02E2,3E0,3E0,6.3E1,5.72E2,3.43E2,1.3E1,6E0,2E0,1E1,4E0,1.4E1,2.3E1,4E0,2.2E1,2.48E2,2E0],"tree_param":{"num_deleted":"0","num_feature":"16","num_nodes":"55","size_leaf_vector":"1"}},{"base_weights":[-2.5366805E0,-6.0259743E0,2.527513E1,-4.1821895E0,-4.8901356E1,3.531981E1,-4.598837E1,-1.7756016E0,-2.9071098E1,-3.7186684E1,-1.6336545E2,-1.8081497E1,4.3501774E1,3.294754E1,-9.269437E1,2.9817343E1,-3.9627266E0,-3.058186E1,2.832415E-1,-4.6184017E1,4.4829655E1,-2.6614317E-1,-9.718532E1,-1.9910951E2,-5.097886E0,3.895999E1,1.1932561E2,8.8390656E1,-7.2736115E1,-1.0589884E2,1.001235E2,-2.5285095E-1,3.32764E-2,-2.014451E-3,-2.188521E-2,2.3294653E-1,-3.2293618E-2,-5.7070754E-2,4.261669E-2,-1.9896442E-1,9.588359E-2,1.687536E-1,-2.1245827E-1,-8.333113E-2,-2.6508552E-1,5.543756E-2,-3.9070982E-2,3.2237526E-2,9.937704E-2,1.4635578E-1,-4.9211252E-2,2.6523013E-2,1.577285E-1,-1.3897246E-1,2.385001E-1,1.6364548E-1,-1.16880625E-1,-1.2897097E-1,1.8966487E-1],"categories":[],"categories_nodes":[],"categories_segments":[],"categories_sizes":[],"default_left":[0,0,0,0,0,0,0,0,0,0,0,0,0,0,0,0,0,0,0,0,0,0,0,0,0,0,0,0,0,0,0,0,0,0,0,0,0,0,0,0,0,0,0,0,0,0,0,0,0,0,0,0,0,0,0,0,0,0,0],"id":3,"left_children":[1,3,5,7,9,11,13,15,17,19,21,23,25,27,29,31,33,35,-1,37,39,-1,41,43,45,47,49,51,53,55,57,-1,-1,-1,-1,-1,-1,-1,-1,-1,-1,-1,-1,-1,-1,-1,-1,-1,-1,-1,-1,-1,-1,-1,-1,-1,-1,-1,-1],"loss_changes":[7.791192E5,5.63675E5,6.422812E5,4.096432E5,3.881323E5,3.4377725E5,4.122927E5,4.311471E5,2.931499E5,1.9983528E5,1.5774825E5,2.4575628E5,2.29855E5,2.5252689E5,1.888275E5,4.0340978E5,2.0369969E5,2.7861188E5,0E0,2.3638706E5,3.551266E5,0E0,5.876575E5,3.1345469E4,2.0576542E5,2.5834469E5,1.8032406E5,1.1591169E5,3.4236225E5,2.1448731E5,1.2703446E5,0E0,0E0,0E0,0E0,0E0,0E0,0E0,0E0,0E0,0E0,0E0,0E0,0E0,0E0,0E0,0E0,0E0,0E0,0E0,0E0,0E0,0E0,0E0,0E0,0E0,0E0,0E0,0E0],"parents":[2147483647,0,0,1,1,2,2,3,3,4,4,5,5,6,6,7,7,8,8,9,9,10,10,11,11,12,12,13,13,14,14,15,15,16,16,17,17,19,19,20,20,22,22,23,23,24,24,25,25,26,26,27,27,28,28,29,29,30,30],"right_children":[2,4,6,8,10,12,14,16,18,20,22,24,26,28,30,32,34,36,-1,38,40,-1,42,44,46,48,50,52,54,56,58,-1,-1,-1,-1,-1,-1,-1,-1,-1,-1,-1,-1,-1,-1,-1,-1,-1,-1,-1,-1,-1,-1,-1,-1,-1,-1,-1,-1],"split_conditions":[9.03E2,9.66E2,8.96E2,1E0,1E0,1.95E2,9.41E2,1.56E2,9.59E2,1E0,5.36E2,1.28E2,8.54E2,6.92E2,1E0,1.06E2,1E0,1.03E2,2.832415E-1,1E0,2.1E2,-2.6614317E-1,7.2E2,1.19E2,1.28E2,1E0,1E0,4.42E2,8.83E2,1.23E2,1.16E2,-2.5285095E-1,3.32764E-2,-2.014451E-3,-2.188521E-2,2.3294653E-1,-3.2293618E-2,-5.7070754E-2,4.261669E-2,-1.9896442E-1,9.588359E-2,1.687536E-1,-2.1245827E-1,-8.333113E-2,-2.6508552E-1,5.543756E-2,-3.9070982E-2,3.2237526E-2,9.937704E-2,1.4635578E-1,-4.9211252E-2,2.6523013E-2,1.577285E-1,-1.3897246E-1,2.385001E-1,1.6364548E-1,-1.16880625E-1,-1.2897097E-1,1.8966487E-1],"split_indices":[3,2,0,8,11,0,3,0,2,7,0,2,0,2,11,2,4,3,0,4,0,0,0,2,0,6,4,2,2,2,2,0,0,0,0,0,0,0,0,0,0,0,0,0,0,0,0,0,0,0,0,0,0,0,0,0,0,0,0],"split_type":[0,0,0,0,0,0,0,0,0,0,0,0,0,0,0,0,0,0,0,0,0,0,0,0,0,0,0,0,0,0,0,0,0,0,0,0,0,0,0,0,0,0,0,0,0,0,0,0,0,0,0,0,0,0,0,0,0,0,0],"sum_hessian":[8.026E3,7.132E3,8.94E2,6.839E3,2.93E2,7.84E2,1.1E2,6.237E3,6.02E2,2.67E2,2.6E1,1.04E2,6.8E2,4.1E1,6.9E1,4.03E2,5.834E3,6E2,2E0,2.41E2,2.6E1,9E0,1.7E1,6E0,9.8E1,6.43E2,3.7E1,2.7E1,1.4E1,6.5E1,4E0,4E0,3.99E2,5.263E3,5.71E2,3E0,5.97E2,2.15E2,2.6E1,4E0,2.2E1,5E0,1.2E1,3E0,3E0,3.5E1,6.3E1,5.8E2,6.3E1,3.2E1,5E0,1.5E1,1.2E1,1.2E1,2E0,2E0,6.3E1,1E0,3E0],"tree_param":{"num_deleted":"0","num_feature":"16","num_nodes":"59","size_leaf_vector":"1"}},{"base_weights":[5.907004E-1,3.8331387E0,-3.270053E1,5.5840755E0,-3.447546E1,-4.140083E1,2.0599321E1,3.8168044E0,2.5129679E1,-6.416952E1,1.579599E1,9.358043E0,-5.6105614E1,2.9692593E-1,9.109467E0,1.0737615E0,1.5636023E1,-2.2157417E1,3.918634E1,1.6878717E2,-7.216251E1,3.736804E1,-1.5019725E2,5.260714E1,-8.5214035E1,-5.1294712E1,-1.4103094E2,-1.4583498E2,2.0800789E1,4.9044946E-3,-1.3626382E-2,8.2117785E-3,6.4095624E-2,-1.7004408E-1,-6.6309044E-4,1.4612094E-1,3.0352058E-2,2.4430016E-1,-1.3296827E-2,-5.4328963E-2,-1.5553328E-1,1.607667E-1,7.1514905E-3,-1.8024068E-1,2.00088E-2,3.7340686E-2,1.8015462E-1,-1.4025505E-1,3.0542236E-2,-5.4765575E-2,8.081478E-2,-2.4960712E-1,-7.524764E-2,-1.6662376E-1,-1.0501178E-2,1.1147231E-1,-1.469414E-2],"categories":[],"categories_nodes":[],"categories_segments":[],"categories_sizes":[],"default_left":[0,0,0,0,0,0,0,0,0,0,0,0,0,0,0,0,0,0,0,0,0,0,0,0,0,0,0,0,0,0,0,0,0,0,0,0,0,0,0,0,0,0,0,0,0,0,0,0,0,0,0,0,0,0,0,0,0],"id":4,"left_children":[1,3,5,7,9,11,13,15,17,19,21,23,25,-1,27,29,31,33,35,37,39,41,43,45,47,49,51,53,55,-1,-1,-1,-1,-1,-1,-1,-1,-1,-1,-1,-1,-1,-1,-1,-1,-1,-1,-1,-1,-1,-1,-1,-1,-1,-1,-1,-1],"loss_changes":[8.696175E5,4.925941E5,3.32418E5,2.4242323E5,4.8019544E5,4.5956462E5,3.1793475E5,2.0877034E5,3.877247E5,3.8829888E5,4.35299E5,5.7301144E5,1.8763325E5,0E0,1.805485E5,2.9446675E5,4.3587462E5,4.258192E5,4.1971338E5,9.951944E4,2.8294125E5,3.9780244E5,7.521244E4,1.8018222E5,2.8463372E5,2.1213888E5,1.597476E5,1.7926516E4,2.9773856E5,0E0,0E0,0E0,0E0,0E0,0E0,0E0,0E0,0E0,0E0,0E0,0E0,0E0,0E0,0E0,0E0,0E0,0E0,0E0,0E0,0E0,0E0,0E0,0E0,0E0,0E0,0E0,0E0],"parents":[2147483647,0,0,1,1,2,2,3,3,4,4,5,5,6,6,7,7,8,8,9,9,10,10,11,11,12,12,14,14,15,15,16,16,17,17,18,18,19,19,20,20,21,21,22,22,23,23,24,24,25,25,26,26,27,27,28,28],"right_children":[2,4,6,8,10,12,14,16,18,20,22,24,26,-1,28,30,32,34,36,38,40,42,44,46,48,50,52,54,56,-1,-1,-1,-1,-1,-1,-1,-1,-1,-1,-1,-1,-1,-1,-1,-1,-1,-1,-1,-1,-1,-1,-1,-1,-1,-1,-1,-1],"split_conditions":[1E0,9.63E2,8.55E2,1E0,9.86E2,2.99E2,8.59E2,8E2,3.31E2,1.32E2,1E0,5.43E2,9.79E2,2.9692593E-1,8.74E2,8.15E2,8.82E2,1.73E2,3.78E2,9.76E2,8E2,9.89E2,6.58E2,2.88E2,2.38E2,9.59E2,3.88E2,8.87E2,9.17E2,4.9044946E-3,-1.3626382E-2,8.2117785E-3,6.4095624E-2,-1.7004408E-1,-6.6309044E-4,1.4612094E-1,3.0352058E-2,2.4430016E-1,-1.3296827E-2,-5.4328963E-2,-1.5553328E-1,1.607667E-1,7.1514905E-3,-1.8024068E-1,2.00088E-2,3.7340686E-2,1.8015462E-1,-1.4025505E-1,3.0542236E-2,-5.4765575E-2,8.081478E-2,-2.4960712E-1,-7.524764E-2,-1.6662376E-1,-1.0501178E-2,1.1147231E-1,-1.469414E-2],"split_indices":[8,2,3,9,2,2,3,2,3,3,15,3,2,0,3,3,3,2,3,2,3,2,3,2,2,2,3,2,3,0,0,0,0,0,0,0,0,0,0,0,0,0,0,0,0,0,0,0,0,0,0,0,0,0,0,0,0],"split_type":[0,0,0,0,0,0,0,0,0,0,0,0,0,0,0,0,0,0,0,0,0,0,0,0,0,0,0,0,0,0,0,0,0,0,0,0,0,0,0,0,0,0,0,0,0,0,0,0,0,0,0,0,0,0,0,0,0],"sum_hessian":[8.054E3,7.34E3,7.14E2,7.02E3,3.2E2,6.14E2,1E2,6.439E3,5.81E2,2.01E2,1.19E2,1.38E2,4.76E2,3E0,9.7E1,5.227E3,1.212E3,1.33E2,4.48E2,6E0,1.95E2,1.06E2,1.3E1,9.5E1,4.3E1,4.52E2,2.4E1,6E0,9.1E1,4.147E3,1.08E3,1.052E3,1.6E2,1.6E1,1.17E2,3.3E1,4.15E2,4E0,2E0,1.62E2,3.3E1,2E1,8.6E1,1.1E1,2E0,8.6E1,9E0,2.9E1,1.4E1,4.41E2,1.1E1,8E0,1.6E1,5E0,1E0,2.5E1,6.6E1],"tree_param":{"num_deleted":"0","num_feature":"16","num_nodes":"57","size_leaf_vector":"1"}},{"base_weights":[-2.628327E0,-5.4675055E0,1.8237993E1,-3.5123265E0,-2.8227432E1,-5.0670624E1,2.6870543E1,-7.907951E1,-2.6713548E0,-1.5919143E1,-7.342947E1,-8.8598335E1,5.089138E1,3.1152628E1,-7.807226E1,-1.1502937E2,3.515503E1,-2.468637E-1,-2.6233303E1,-1.9609566E1,1.6420901E2,-1.0527378E2,8.1702E1,-1.06885124E2,4.8259018E1,1.2433631E2,-1.0842212E2,2.5407076E1,1.0550986E2,8.203929E1,-1.9425731E2,-1.4011016E-1,1.13132045E-1,-8.8783994E-2,1.2210568E-1,2.3194016E-3,-2.4210464E-2,2.527207E-3,-5.7383053E-2,-6.315361E-2,-6.5913717E-3,-1.4998873E-1,2.2224484E-1,-8.6019255E-2,-2.2750652E-1,-5.5077844E-3,3.0066112E-1,-8.577533E-2,-2.1230355E-1,-1.962845E-1,1.8111831E-1,1.9260927E-1,-7.8430906E-2,2.6516974E-2,-2.4868461E-1,3.296022E-2,-3.8274255E-2,2.9965444E-2,1.8807456E-1,6.6179447E-3,1.6727541E-1,-2.5170988E-1,9.84554E-2],"categories":[],"categories_nodes":[],"categories_segments":[],"categories_sizes":[],"default_left":[0,0,0,0,0,0,0,0,0,0,0,0,0,0,0,0,0,0,0,0,0,0,0,0,0,0,0,0,0,0,0,0,0,0,0,0,0,0,0,0,0,0,0,0,0,0,0,0,0,0,0,0,0,0,0,0,0,0,0,0,0,0,0],"id":5,"left_children":[1,3,5,7,9,11,13,15,17,19,21,23,25,27,29,31,33,35,37,39,41,43,45,47,49,51,53,55,57,59,61,-1,-1,-1,-1,-1,-1,-1,-1,-1,-1,-1,-1,-1,-1,-1,-1,-1,-1,-1,-1,-1,-1,-1,-1,-1,-1,-1,-1,-1,-1,-1,-1],"loss_changes":[4.7830962E5,3.1611272E5,5.765859E5,4.157144E5,3.114963E5,4.205303E5,3.888892E5,2.9973534E5,3.6982288E5,2.9768953E5,6.0141006E5,2.0287588E5,3.6450547E5,3.5061988E5,6.484354E5,3.3058925E5,2.0482275E5,3.6110694E5,5.4126356E5,2.4616292E5,1.9745394E5,2.15752E5,4.0268844E5,1.3753512E5,3.60448E5,3.058317E5,1.958855E5,3.711455E5,3.6234325E5,9.5304945E4,3.6113944E5,0E0,0E0,0E0,0E0,0E0,0E0,0E0,0E0,0E0,0E0,0E0,0E0,0E0,0E0,0E0,0E0,0E0,0E0,0E0,0E0,0E0,0E0,0E0,0E0,0E0,0E0,0E0,0E0,0E0,0E0,0E0,0E0],"parents":[2147483647,0,0,1,1,2,2,3,3,4,4,5,5,6,6,7,7,8,8,9,9,10,10,11,11,12,12,13,13,14,14,15,15,16,16,17,17,18,18,19,19,20,20,21,21,22,22,23,23,24,24,25,25,26,26,27,27,28,28,29,29,30,30],"right_children":[2,4,6,8,10,12,14,16,18,20,22,24,26,28,30,32,34,36,38,40,42,44,46,48,50,52,54,56,58,60,62,-1,-1,-1,-1,-1,-1,-1,-1,-1,-1,-1,-1,-1,-1,-1,-1,-1,-1,-1,-1,-1,-1,-1,-1,-1,-1,-1,-1,-1,-1,-1,-1],"split_conditions":[8.93E2,1E0,1.95E2,1.09E2,8.29E2,9.72E2,9.63E2,6.9E2,8.15E2,8.15E2,8.01E2,1E0,6.68E2,9.04E2,5.63E2,8.88E2,1.03E2,1E0,5.75E2,2.79E2,1.95E2,7.33E2,7.3E2,9.63E2,1.69E2,9.96E2,4.35E2,9.19E2,5.77E2,9.79E2,9.96E2,-1.4011016E-1,1.13132045E-1,-8.8783994E-2,1.2210568E-1,2.3194016E-3,-2.4210464E-2,2.527207E-3,-5.7383053E-2,-6.315361E-2,-6.5913717E-3,-1.4998873E-1,2.2224484E-1,-8.6019255E-2,-2.2750652E-1,-5.5077844E-3,3.0066112E-1,-8.577533E-2,-2.1230355E-1,-1.962845E-1,1.8111831E-1,1.9260927E-1,-7.8430906E-2,2.6516974E-2,-2.4868461E-1,3.296022E-2,-3.8274255E-2,2.9965444E-2,1.8807456E-1,6.6179447E-3,1.6727541E-1,-2.5170988E-1,9.84554E-2],"split_indices":[3,15,0,2,2,3,2,3,3,2,1,7,2,2,0,1,2,8,0,3,0,1,3,3,2,3,1,0,1,2,2,0,0,0,0,0,0,0,0,0,0,0,0,0,0,0,0,0,0,0,0,0,0,0,0,0,0,0,0,0,0,0,0],"split_type":[0,0,0,0,0,0,0,0,0,0,0,0,0,0,0,0,0,0,0,0,0,0,0,0,0,0,0,0,0,0,0,0,0,0,0,0,0,0,0,0,0,0,0,0,0,0,0,0,0,0,0,0,0,0,0,0,0,0,0,0,0,0,0],"sum_hessian":[8.071E3,7.105E3,9.66E2,6.544E3,5.61E2,1.07E2,8.59E2,7.1E1,6.473E3,4.42E2,1.19E2,7.8E1,2.9E1,8.26E2,3.3E1,5.4E1,1.7E1,5.87E3,6.03E2,4.34E2,8E0,9.9E1,2E1,6.9E1,9E0,2E1,9E0,7.68E2,5.8E1,1.4E1,1.9E1,4.9E1,5E0,7E0,1E1,5.303E3,5.67E2,3.14E2,2.89E2,9.9E1,3.35E2,1E0,7E0,8.7E1,1.2E1,1.5E1,5E0,5.9E1,1E1,3E0,6E0,1.5E1,5E0,5E0,4E0,6.87E2,8.1E1,3.1E1,2.7E1,8E0,6E0,1.6E1,3E0],"tree_param":{"num_deleted":"0","num_feature":"16","num_nodes":"63","size_leaf_vector":"1"}}]},"name":"gbtree"},"learner_model_param":{"base_score":"5.500971E2","boost_from_average":"1","num_class":"0","num_feature":"16","num_target":"1"},"objective":{"name":"reg:squarederror","reg_loss_param":{"scale_pos_weight":"1"}}},"version":[3,0,2]}